digraph Tree {
node [shape=box, style="filled, rounded", color="black", fontname=helvetica] ;
edge [fontname=helvetica] ;
-1 [label="AI Developer - Emirhan BULUT\nMachine Learning Text Classifier and Extra Tree Software\nAbout of University Learning Prediction Software with Machine Learning\nwww.emirhanbulut.com.tr", fillcolor="#e0b0ff"] ;
0 [label="X[18] <= 0.04\ngini = 0.49\nsamples = 19\nvalue = [11, 8]\nclass = for learning", fillcolor="#f8ddc9"] ;
1 [label="X[4] <= 0.23\ngini = 0.5\nsamples = 13\nvalue = [6, 7]\nclass = not for learning", fillcolor="#e3f1fb"] ;
0 -> 1 [labeldistance=2.5, labelangle=45, headlabel="True"] ;
2 [label="X[33] <= 0.03\ngini = 0.49\nsamples = 12\nvalue = [5, 7]\nclass = not for learning", fillcolor="#c6e3f8"] ;
1 -> 2 ;
3 [label="X[24] <= 0.06\ngini = 0.5\nsamples = 10\nvalue = [5, 5]\nclass = for learning", fillcolor="#ffffff"] ;
2 -> 3 ;
4 [label="X[27] <= 0.35\ngini = 0.44\nsamples = 6\nvalue = [4, 2]\nclass = for learning", fillcolor="#f2c09c"] ;
3 -> 4 ;
5 [label="X[5] <= 0.04\ngini = 0.32\nsamples = 5\nvalue = [4, 1]\nclass = for learning", fillcolor="#eca06a"] ;
4 -> 5 ;
6 [label="X[34] <= 0.34\ngini = 0.44\nsamples = 3\nvalue = [2, 1]\nclass = for learning", fillcolor="#f2c09c"] ;
5 -> 6 ;
7 [label="gini = 0.0\nsamples = 2\nvalue = [2, 0]\nclass = for learning", fillcolor="#e58139"] ;
6 -> 7 ;
8 [label="gini = 0.0\nsamples = 1\nvalue = [0, 1]\nclass = not for learning", fillcolor="#399de5"] ;
6 -> 8 ;
9 [label="gini = 0.0\nsamples = 2\nvalue = [2, 0]\nclass = for learning", fillcolor="#e58139"] ;
5 -> 9 ;
10 [label="gini = 0.0\nsamples = 1\nvalue = [0, 1]\nclass = not for learning", fillcolor="#399de5"] ;
4 -> 10 ;
11 [label="X[7] <= 0.04\ngini = 0.38\nsamples = 4\nvalue = [1, 3]\nclass = not for learning", fillcolor="#7bbeee"] ;
3 -> 11 ;
12 [label="X[21] <= 0.21\ngini = 0.44\nsamples = 3\nvalue = [1, 2]\nclass = not for learning", fillcolor="#9ccef2"] ;
11 -> 12 ;
13 [label="X[16] <= 0.08\ngini = 0.5\nsamples = 2\nvalue = [1, 1]\nclass = for learning", fillcolor="#ffffff"] ;
12 -> 13 ;
14 [label="gini = 0.0\nsamples = 1\nvalue = [1, 0]\nclass = for learning", fillcolor="#e58139"] ;
13 -> 14 ;
15 [label="gini = 0.0\nsamples = 1\nvalue = [0, 1]\nclass = not for learning", fillcolor="#399de5"] ;
13 -> 15 ;
16 [label="gini = 0.0\nsamples = 1\nvalue = [0, 1]\nclass = not for learning", fillcolor="#399de5"] ;
12 -> 16 ;
17 [label="gini = 0.0\nsamples = 1\nvalue = [0, 1]\nclass = not for learning", fillcolor="#399de5"] ;
11 -> 17 ;
18 [label="gini = 0.0\nsamples = 2\nvalue = [0, 2]\nclass = not for learning", fillcolor="#399de5"] ;
2 -> 18 ;
19 [label="gini = 0.0\nsamples = 1\nvalue = [1, 0]\nclass = for learning", fillcolor="#e58139"] ;
1 -> 19 ;
20 [label="X[1] <= 0.21\ngini = 0.28\nsamples = 6\nvalue = [5, 1]\nclass = for learning", fillcolor="#ea9a61"] ;
0 -> 20 [labeldistance=2.5, labelangle=-45, headlabel="False"] ;
21 [label="gini = 0.0\nsamples = 5\nvalue = [5, 0]\nclass = for learning", fillcolor="#e58139"] ;
20 -> 21 ;
22 [label="gini = 0.0\nsamples = 1\nvalue = [0, 1]\nclass = not for learning", fillcolor="#399de5"] ;
20 -> 22 ;
}